Language model created by QuickLM on Wed Nov  4 10:44:06 EST 2020
Copyright (c) 1996-2010 Carnegie Mellon University and Alexander I. Rudnicky

The model is in standard ARPA format, designed by Doug Paul while he was at MITRE.

The code that was used to produce this language model is available in Open Source.
Please visit http://www.speech.cs.cmu.edu/tools/ for more information

The (fixed) discount mass is 0.5. The backoffs are computed using the ratio method.
This model based on a corpus of 4 sentences and 6 words

\data\
ngram 1=6
ngram 2=8
ngram 3=4

\1-grams:
-0.7782 </s> -0.3010
-0.7782 <s> -0.2218
-1.3802 BLUE -0.2218
-1.3802 GREEN -0.2218
-1.3802 RED -0.2218
-1.3802 YELLOW -0.2218

\2-grams:
-0.9031 <s> BLUE 0.0000
-0.9031 <s> GREEN 0.0000
-0.9031 <s> RED 0.0000
-0.9031 <s> YELLOW 0.0000
-0.3010 BLUE </s> -0.3010
-0.3010 GREEN </s> -0.3010
-0.3010 RED </s> -0.3010
-0.3010 YELLOW </s> -0.3010

\3-grams:
-0.3010 <s> BLUE </s>
-0.3010 <s> GREEN </s>
-0.3010 <s> RED </s>
-0.3010 <s> YELLOW </s>

\end\
